digraph Tree {
node [shape=box, style="filled, rounded", color="black", fontname=helvetica] ;
edge [fontname=helvetica] ;
0 [label="mean concave points <= 0.051\ngini = 0.468\nsamples = 398\nvalue = [149, 249]\nclass = benign", fillcolor="#afd8f5"] ;
1 [label="worst radius <= 16.83\ngini = 0.1\nsamples = 245\nvalue = [13, 232]\nclass = benign", fillcolor="#44a2e6"] ;
0 -> 1 [labeldistance=2.5, labelangle=45, headlabel="True"] ;
2 [label="area error <= 48.7\ngini = 0.043\nsamples = 230\nvalue = [5, 225]\nclass = benign", fillcolor="#3d9fe6"] ;
1 -> 2 ;
3 [label="worst smoothness <= 0.178\ngini = 0.026\nsamples = 227\nvalue = [3, 224]\nclass = benign", fillcolor="#3c9ee5"] ;
2 -> 3 ;
4 [label="smoothness error <= 0.003\ngini = 0.018\nsamples = 226\nvalue = [2, 224]\nclass = benign", fillcolor="#3b9ee5"] ;
3 -> 4 ;
5 [label="worst texture <= 26.89\ngini = 0.32\nsamples = 5\nvalue = [1, 4]\nclass = benign", fillcolor="#6ab6ec"] ;
4 -> 5 ;
6 [label="gini = 0.0\nsamples = 4\nvalue = [0, 4]\nclass = benign", fillcolor="#399de5"] ;
5 -> 6 ;
7 [label="gini = 0.0\nsamples = 1\nvalue = [1, 0]\nclass = malignant", fillcolor="#e58139"] ;
5 -> 7 ;
8 [label="worst texture <= 33.35\ngini = 0.009\nsamples = 221\nvalue = [1, 220]\nclass = benign", fillcolor="#3a9de5"] ;
4 -> 8 ;
9 [label="gini = 0.0\nsamples = 208\nvalue = [0, 208]\nclass = benign", fillcolor="#399de5"] ;
8 -> 9 ;
10 [label="worst texture <= 34.5\ngini = 0.142\nsamples = 13\nvalue = [1, 12]\nclass = benign", fillcolor="#49a5e7"] ;
8 -> 10 ;
11 [label="gini = 0.0\nsamples = 1\nvalue = [1, 0]\nclass = malignant", fillcolor="#e58139"] ;
10 -> 11 ;
12 [label="gini = 0.0\nsamples = 12\nvalue = [0, 12]\nclass = benign", fillcolor="#399de5"] ;
10 -> 12 ;
13 [label="gini = 0.0\nsamples = 1\nvalue = [1, 0]\nclass = malignant", fillcolor="#e58139"] ;
3 -> 13 ;
14 [label="concavity error <= 0.02\ngini = 0.444\nsamples = 3\nvalue = [2, 1]\nclass = malignant", fillcolor="#f2c09c"] ;
2 -> 14 ;
15 [label="gini = 0.0\nsamples = 2\nvalue = [2, 0]\nclass = malignant", fillcolor="#e58139"] ;
14 -> 15 ;
16 [label="gini = 0.0\nsamples = 1\nvalue = [0, 1]\nclass = benign", fillcolor="#399de5"] ;
14 -> 16 ;
17 [label="mean texture <= 16.19\ngini = 0.498\nsamples = 15\nvalue = [8, 7]\nclass = malignant", fillcolor="#fcefe6"] ;
1 -> 17 ;
18 [label="gini = 0.0\nsamples = 5\nvalue = [0, 5]\nclass = benign", fillcolor="#399de5"] ;
17 -> 18 ;
19 [label="concave points error <= 0.01\ngini = 0.32\nsamples = 10\nvalue = [8, 2]\nclass = malignant", fillcolor="#eca06a"] ;
17 -> 19 ;
20 [label="gini = 0.0\nsamples = 8\nvalue = [8, 0]\nclass = malignant", fillcolor="#e58139"] ;
19 -> 20 ;
21 [label="gini = 0.0\nsamples = 2\nvalue = [0, 2]\nclass = benign", fillcolor="#399de5"] ;
19 -> 21 ;
22 [label="worst texture <= 20.405\ngini = 0.198\nsamples = 153\nvalue = [136, 17]\nclass = malignant", fillcolor="#e89152"] ;
0 -> 22 [labeldistance=2.5, labelangle=-45, headlabel="False"] ;
23 [label="worst radius <= 18.145\ngini = 0.408\nsamples = 14\nvalue = [4, 10]\nclass = benign", fillcolor="#88c4ef"] ;
22 -> 23 ;
24 [label="gini = 0.0\nsamples = 10\nvalue = [0, 10]\nclass = benign", fillcolor="#399de5"] ;
23 -> 24 ;
25 [label="gini = 0.0\nsamples = 4\nvalue = [4, 0]\nclass = malignant", fillcolor="#e58139"] ;
23 -> 25 ;
26 [label="worst area <= 718.65\ngini = 0.096\nsamples = 139\nvalue = [132, 7]\nclass = malignant", fillcolor="#e68844"] ;
22 -> 26 ;
27 [label="worst texture <= 25.925\ngini = 0.497\nsamples = 13\nvalue = [6, 7]\nclass = benign", fillcolor="#e3f1fb"] ;
26 -> 27 ;
28 [label="gini = 0.0\nsamples = 7\nvalue = [0, 7]\nclass = benign", fillcolor="#399de5"] ;
27 -> 28 ;
29 [label="gini = 0.0\nsamples = 6\nvalue = [6, 0]\nclass = malignant", fillcolor="#e58139"] ;
27 -> 29 ;
30 [label="gini = 0.0\nsamples = 126\nvalue = [126, 0]\nclass = malignant", fillcolor="#e58139"] ;
26 -> 30 ;
}